{
    "learner": {
        "attributes": {
            "best_iteration": "4",
            "best_ntree_limit": "5",
            "scikit_learn": "{\"use_label_encoder\": null, \"n_estimators\": 5, \"objective\": \"binary:logistic\", \"max_depth\": 3, \"max_leaves\": null, \"max_bin\": null, \"grow_policy\": null, \"learning_rate\": null, \"verbosity\": null, \"booster\": null, \"tree_method\": null, \"gamma\": 3.6, \"min_child_weight\": 3, \"max_delta_step\": null, \"subsample\": 0.8, \"sampling_method\": null, \"colsample_bytree\": null, \"colsample_bylevel\": null, \"colsample_bynode\": null, \"reg_alpha\": null, \"reg_lambda\": null, \"scale_pos_weight\": 10, \"base_score\": null, \"missing\": NaN, \"num_parallel_tree\": null, \"random_state\": null, \"n_jobs\": null, \"monotone_constraints\": null, \"interaction_constraints\": null, \"importance_type\": null, \"gpu_id\": null, \"validate_parameters\": null, \"predictor\": null, \"enable_categorical\": false, \"feature_types\": null, \"max_cat_to_onehot\": null, \"max_cat_threshold\": null, \"eval_metric\": \"aucpr\", \"early_stopping_rounds\": null, \"callbacks\": null, \"kwargs\": {\"eta\": 0.2}, \"classes_\": [0, 1], \"n_classes_\": 2, \"_estimator_type\": \"classifier\"}"
        },
        "feature_names": [],
        "feature_types": [],
        "gradient_booster": {
            "model": {
                "gbtree_model_param": {
                    "num_parallel_tree": "1",
                    "num_trees": "5",
                    "size_leaf_vector": "0"
                },
                "tree_info": [
                    0,
                    0,
                    0,
                    0,
                    0
                ],
                "trees": [
                    {
                        "base_weights": [
                            -1.3184498E-1,
                            1.1338311E-1,
                            -2.817942E-1,
                            2.2383209E-1,
                            -3.5096624E-1,
                            -2.3404363E-1,
                            -7.2202677E-1,
                            -4.2399174E-1,
                            2.876964E-1,
                            -2.0371747E-1,
                            -8.937729E-1,
                            -5.141289E-1,
                            -1.2614897E-1,
                            -6.491634E-1,
                            -1.4554974E0
                        ],
                        "categories": [],
                        "categories_nodes": [],
                        "categories_segments": [],
                        "categories_sizes": [],
                        "default_left": [
                            1,
                            1,
                            1,
                            1,
                            1,
                            1,
                            1,
                            0,
                            0,
                            0,
                            0,
                            0,
                            0,
                            0,
                            0
                        ],
                        "id": 0,
                        "left_children": [
                            1,
                            3,
                            5,
                            7,
                            9,
                            11,
                            13,
                            -1,
                            -1,
                            -1,
                            -1,
                            -1,
                            -1,
                            -1,
                            -1
                        ],
                        "loss_changes": [
                            6.4568884E2,
                            3.4181604E2,
                            2.2888501E2,
                            2.2285257E2,
                            1.02185196E2,
                            2.9704016E2,
                            5.6012146E1,
                            0E0,
                            0E0,
                            0E0,
                            0E0,
                            0E0,
                            0E0,
                            0E0,
                            0E0
                        ],
                        "parents": [
                            2147483647,
                            0,
                            0,
                            1,
                            1,
                            2,
                            2,
                            3,
                            3,
                            4,
                            4,
                            5,
                            5,
                            6,
                            6
                        ],
                        "right_children": [
                            2,
                            4,
                            6,
                            8,
                            10,
                            12,
                            14,
                            -1,
                            -1,
                            -1,
                            -1,
                            -1,
                            -1,
                            -1,
                            -1
                        ],
                        "split_conditions": [
                            5E-1,
                            2.0290674E-1,
                            2.6467922E-1,
                            5E-1,
                            3.2408482E-1,
                            5.8904495E-2,
                            2.6852041E-3,
                            -8.479835E-2,
                            5.753928E-2,
                            -4.0743496E-2,
                            -1.7875458E-1,
                            -1.0282578E-1,
                            -2.5229795E-2,
                            -1.2983268E-1,
                            -2.910995E-1
                        ],
                        "split_indices": [
                            2,
                            7,
                            7,
                            1,
                            7,
                            7,
                            6,
                            0,
                            0,
                            0,
                            0,
                            0,
                            0,
                            0,
                            0
                        ],
                        "split_type": [
                            0,
                            0,
                            0,
                            0,
                            0,
                            0,
                            0,
                            0,
                            0,
                            0,
                            0,
                            0,
                            0,
                            0,
                            0
                        ],
                        "sum_hessian": [
                            1.75575E4,
                            6.66225E3,
                            1.089525E4,
                            5.3825E3,
                            1.27975E3,
                            9.8305E3,
                            1.06475E3,
                            4.825E2,
                            4.9E3,
                            1.00775E3,
                            2.72E2,
                            2.73275E3,
                            7.09775E3,
                            9.7025E2,
                            9.45E1
                        ],
                        "tree_param": {
                            "num_deleted": "0",
                            "num_feature": "9",
                            "num_nodes": "15",
                            "size_leaf_vector": "0"
                        }
                    },
                    {
                        "base_weights": [
                            -9.290292E-2,
                            9.493585E-2,
                            -2.0671776E-1,
                            2.980951E-1,
                            -8.60932E-2,
                            -2.9220876E-1,
                            -1.3138089E-2,
                            3.7496638E-1,
                            -1.293971E-1,
                            -6.156901E-1,
                            -1.840832E-3,
                            -6.532028E-1,
                            -2.6201168E-1,
                            9.682641E-2,
                            -2.7818733E-1
                        ],
                        "categories": [],
                        "categories_nodes": [],
                        "categories_segments": [],
                        "categories_sizes": [],
                        "default_left": [
                            1,
                            1,
                            1,
                            1,
                            1,
                            1,
                            1,
                            0,
                            0,
                            0,
                            0,
                            0,
                            0,
                            0,
                            0
                        ],
                        "id": 1,
                        "left_children": [
                            1,
                            3,
                            5,
                            7,
                            9,
                            11,
                            13,
                            -1,
                            -1,
                            -1,
                            -1,
                            -1,
                            -1,
                            -1,
                            -1
                        ],
                        "loss_changes": [
                            3.7614655E2,
                            2.4418336E2,
                            1.8130527E2,
                            1.0285318E2,
                            1.5667455E2,
                            8.267029E1,
                            9.7876816E1,
                            0E0,
                            0E0,
                            0E0,
                            0E0,
                            0E0,
                            0E0,
                            0E0,
                            0E0
                        ],
                        "parents": [
                            2147483647,
                            0,
                            0,
                            1,
                            1,
                            2,
                            2,
                            3,
                            3,
                            4,
                            4,
                            5,
                            5,
                            6,
                            6
                        ],
                        "right_children": [
                            2,
                            4,
                            6,
                            8,
                            10,
                            12,
                            14,
                            -1,
                            -1,
                            -1,
                            -1,
                            -1,
                            -1,
                            -1,
                            -1
                        ],
                        "split_conditions": [
                            5E-1,
                            5E-1,
                            4.5454547E-2,
                            2.0692809E-1,
                            5.0190743E-2,
                            3.2413483E-2,
                            1.2329626E-3,
                            7.4993275E-2,
                            -2.5879418E-2,
                            -1.23138025E-1,
                            -3.681664E-4,
                            -1.3064055E-1,
                            -5.2402336E-2,
                            1.9365283E-2,
                            -5.5637468E-2
                        ],
                        "split_indices": [
                            2,
                            3,
                            5,
                            7,
                            8,
                            7,
                            6,
                            0,
                            0,
                            0,
                            0,
                            0,
                            0,
                            0,
                            0
                        ],
                        "split_type": [
                            0,
                            0,
                            0,
                            0,
                            0,
                            0,
                            0,
                            0,
                            0,
                            0,
                            0,
                            0,
                            0,
                            0,
                            0
                        ],
                        "sum_hessian": [
                            1.7592424E4,
                            6.637738E3,
                            1.0954686E4,
                            3.1273892E3,
                            3.5103489E3,
                            7.5984546E3,
                            3.356231E3,
                            2.6508403E3,
                            4.7654877E2,
                            4.8093854E2,
                            3.0294104E3,
                            5.8495245E2,
                            7.013502E3,
                            2.3725388E3,
                            9.8369214E2
                        ],
                        "tree_param": {
                            "num_deleted": "0",
                            "num_feature": "9",
                            "num_nodes": "15",
                            "size_leaf_vector": "0"
                        }
                    },
                    {
                        "base_weights": [
                            -7.974212E-2,
                            -1.5850462E-2,
                            -3.5408652E-1,
                            1.6296868E-1,
                            -1.2586527E-1,
                            -2.9000986E-1,
                            -9.724072E-1,
                            -2.0691864E-1,
                            2.5253135E-1,
                            -3.3013788E-1,
                            -3.325658E-2,
                            4.988564E-1,
                            -3.068454E-1,
                            -8.4578556E-1,
                            -1.8039254E0
                        ],
                        "categories": [],
                        "categories_nodes": [],
                        "categories_segments": [],
                        "categories_sizes": [],
                        "default_left": [
                            1,
                            1,
                            0,
                            1,
                            1,
                            1,
                            0,
                            0,
                            0,
                            0,
                            0,
                            0,
                            0,
                            0,
                            0
                        ],
                        "id": 2,
                        "left_children": [
                            1,
                            3,
                            5,
                            7,
                            9,
                            11,
                            13,
                            -1,
                            -1,
                            -1,
                            -1,
                            -1,
                            -1,
                            -1,
                            -1
                        ],
                        "loss_changes": [
                            3.0699487E2,
                            2.7951428E2,
                            1.307962E2,
                            1.793362E2,
                            1.663925E2,
                            3.9984985E1,
                            3.1137878E1,
                            0E0,
                            0E0,
                            0E0,
                            0E0,
                            0E0,
                            0E0,
                            0E0,
                            0E0
                        ],
                        "parents": [
                            2147483647,
                            0,
                            0,
                            1,
                            1,
                            2,
                            2,
                            3,
                            3,
                            4,
                            4,
                            5,
                            5,
                            6,
                            6
                        ],
                        "right_children": [
                            2,
                            4,
                            6,
                            8,
                            10,
                            12,
                            14,
                            -1,
                            -1,
                            -1,
                            -1,
                            -1,
                            -1,
                            -1,
                            -1
                        ],
                        "split_conditions": [
                            2.1307865E-1,
                            5E-1,
                            2.1819349E-1,
                            4.9909465E-2,
                            5.9757303E-2,
                            4.058582E-4,
                            3.2396322E-1,
                            -4.138373E-2,
                            5.050627E-2,
                            -6.6027574E-2,
                            -6.651316E-3,
                            9.977128E-2,
                            -6.136908E-2,
                            -1.6915712E-1,
                            -3.607851E-1
                        ],
                        "split_indices": [
                            7,
                            2,
                            8,
                            8,
                            7,
                            6,
                            8,
                            0,
                            0,
                            0,
                            0,
                            0,
                            0,
                            0,
                            0
                        ],
                        "split_type": [
                            0,
                            0,
                            0,
                            0,
                            0,
                            0,
                            0,
                            0,
                            0,
                            0,
                            0,
                            0,
                            0,
                            0,
                            0
                        ],
                        "sum_hessian": [
                            1.7513543E4,
                            1.420615E4,
                            3.3073916E3,
                            5.4108394E3,
                            8.795312E3,
                            2.998161E3,
                            3.092308E2,
                            1.054504E3,
                            4.356335E3,
                            2.742796E3,
                            6.0525156E3,
                            6.204989E1,
                            2.9361108E3,
                            2.7011542E2,
                            3.9115395E1
                        ],
                        "tree_param": {
                            "num_deleted": "0",
                            "num_feature": "9",
                            "num_nodes": "15",
                            "size_leaf_vector": "0"
                        }
                    },
                    {
                        "base_weights": [
                            -6.86853E-2,
                            2.1632463E-2,
                            -2.4416679E-1,
                            -2.0008348E-1,
                            1.426757E-1,
                            -2.1498871E-1,
                            -1.065245E0,
                            -4.3685466E-1,
                            -1.2903075E-1,
                            -7.766354E-1,
                            1.7884158E-1,
                            -4.2634133E-1,
                            -1.509465E-1,
                            -1.2758986E0,
                            -5.392404E-1
                        ],
                        "categories": [],
                        "categories_nodes": [],
                        "categories_segments": [],
                        "categories_sizes": [],
                        "default_left": [
                            1,
                            1,
                            0,
                            1,
                            1,
                            0,
                            1,
                            0,
                            0,
                            0,
                            0,
                            0,
                            0,
                            0,
                            0
                        ],
                        "id": 3,
                        "left_children": [
                            1,
                            3,
                            5,
                            7,
                            9,
                            11,
                            13,
                            -1,
                            -1,
                            -1,
                            -1,
                            -1,
                            -1,
                            -1,
                            -1
                        ],
                        "loss_changes": [
                            2.7644855E2,
                            3.0909448E2,
                            1.4176437E2,
                            6.836932E1,
                            2.4783383E2,
                            7.742297E1,
                            2.182074E1,
                            0E0,
                            0E0,
                            0E0,
                            0E0,
                            0E0,
                            0E0,
                            0E0,
                            0E0
                        ],
                        "parents": [
                            2147483647,
                            0,
                            0,
                            1,
                            1,
                            2,
                            2,
                            3,
                            3,
                            4,
                            4,
                            5,
                            5,
                            6,
                            6
                        ],
                        "right_children": [
                            2,
                            4,
                            6,
                            8,
                            10,
                            12,
                            14,
                            -1,
                            -1,
                            -1,
                            -1,
                            -1,
                            -1,
                            -1,
                            -1
                        ],
                        "split_conditions": [
                            1.5595394E-1,
                            5.6457993E-2,
                            2.4604012E-1,
                            2.7805619E-2,
                            5E-1,
                            1.0541814E-1,
                            7.3329854E-1,
                            -8.737093E-2,
                            -2.580615E-2,
                            -1.5532708E-1,
                            3.5768315E-2,
                            -8.526827E-2,
                            -3.01893E-2,
                            -2.5517973E-1,
                            -1.07848085E-1
                        ],
                        "split_indices": [
                            7,
                            8,
                            8,
                            7,
                            1,
                            8,
                            0,
                            0,
                            0,
                            0,
                            0,
                            0,
                            0,
                            0,
                            0
                        ],
                        "split_type": [
                            0,
                            0,
                            0,
                            0,
                            0,
                            0,
                            0,
                            0,
                            0,
                            0,
                            0,
                            0,
                            0,
                            0,
                            0
                        ],
                        "sum_hessian": [
                            1.744121E4,
                            1.151532E4,
                            5.925891E3,
                            4.066332E3,
                            7.4489883E3,
                            5.723752E3,
                            2.0213905E2,
                            9.374131E2,
                            3.128919E3,
                            2.811776E2,
                            7.1678105E3,
                            1.3297255E3,
                            4.3940264E3,
                            1.4331773E2,
                            5.8821327E1
                        ],
                        "tree_param": {
                            "num_deleted": "0",
                            "num_feature": "9",
                            "num_nodes": "15",
                            "size_leaf_vector": "0"
                        }
                    },
                    {
                        "base_weights": [
                            -5.1171314E-2,
                            2.1993442E-2,
                            -1.9364057E-1,
                            -1.6921641E-1,
                            1.3622595E-1,
                            -1.1647013E0,
                            -1.7823043E-1,
                            6.2827184E-3,
                            -2.7510145E-1,
                            -6.5146327E-1,
                            1.7214291E-1,
                            -1.2440522E0,
                            4.061174E-1,
                            -1.339439E-1,
                            -4.9683598E-1
                        ],
                        "categories": [],
                        "categories_nodes": [],
                        "categories_segments": [],
                        "categories_sizes": [],
                        "default_left": [
                            1,
                            1,
                            1,
                            1,
                            1,
                            1,
                            1,
                            0,
                            0,
                            0,
                            0,
                            0,
                            0,
                            0,
                            0
                        ],
                        "id": 4,
                        "left_children": [
                            1,
                            3,
                            5,
                            7,
                            9,
                            11,
                            13,
                            -1,
                            -1,
                            -1,
                            -1,
                            -1,
                            -1,
                            -1,
                            -1
                        ],
                        "loss_changes": [
                            1.8226132E2,
                            2.5237042E2,
                            8.857059E1,
                            8.030139E1,
                            2.0474138E2,
                            1.2034584E1,
                            8.2352615E1,
                            0E0,
                            0E0,
                            0E0,
                            0E0,
                            0E0,
                            0E0,
                            0E0,
                            0E0
                        ],
                        "parents": [
                            2147483647,
                            0,
                            0,
                            1,
                            1,
                            2,
                            2,
                            3,
                            3,
                            4,
                            4,
                            5,
                            5,
                            6,
                            6
                        ],
                        "right_children": [
                            2,
                            4,
                            6,
                            8,
                            10,
                            12,
                            14,
                            -1,
                            -1,
                            -1,
                            -1,
                            -1,
                            -1,
                            -1,
                            -1
                        ],
                        "split_conditions": [
                            1.5595394E-1,
                            5.8573034E-2,
                            5E-1,
                            5E-1,
                            5E-1,
                            9.809882E-1,
                            3.2352304E-1,
                            1.2565437E-3,
                            -5.502029E-2,
                            -1.3029265E-1,
                            3.442858E-2,
                            -2.4881044E-1,
                            8.122348E-2,
                            -2.678878E-2,
                            -9.9367194E-2
                        ],
                        "split_indices": [
                            7,
                            7,
                            1,
                            2,
                            1,
                            0,
                            7,
                            0,
                            0,
                            0,
                            0,
                            0,
                            0,
                            0,
                            0
                        ],
                        "split_type": [
                            0,
                            0,
                            0,
                            0,
                            0,
                            0,
                            0,
                            0,
                            0,
                            0,
                            0,
                            0,
                            0,
                            0,
                            0
                        ],
                        "sum_hessian": [
                            1.7483822E4,
                            1.1552109E4,
                            5.931713E3,
                            4.3201978E3,
                            7.2319116E3,
                            9.14971E1,
                            5.840216E3,
                            1.6260472E3,
                            2.6941506E3,
                            3.146319E2,
                            6.9172793E3,
                            8.729535E1,
                            4.201747E0,
                            5.1287363E3,
                            7.114797E2
                        ],
                        "tree_param": {
                            "num_deleted": "0",
                            "num_feature": "9",
                            "num_nodes": "15",
                            "size_leaf_vector": "0"
                        }
                    }
                ]
            },
            "name": "gbtree"
        },
        "learner_model_param": {
            "base_score": "5E-1",
            "boost_from_average": "1",
            "num_class": "0",
            "num_feature": "9",
            "num_target": "1"
        },
        "objective": {
            "name": "binary:logistic",
            "reg_loss_param": {
                "scale_pos_weight": "10"
            }
        }
    },
    "version": [
        1,
        7,
        1
    ]
}