{"learner":{"attributes":{"best_iteration":"4","best_ntree_limit":"5","scikit_learn":"{\"use_label_encoder\": null, \"n_estimators\": 5, \"objective\": \"binary:logistic\", \"max_depth\": 3, \"max_leaves\": null, \"max_bin\": null, \"grow_policy\": null, \"learning_rate\": null, \"verbosity\": null, \"booster\": null, \"tree_method\": null, \"gamma\": 3.6, \"min_child_weight\": 3, \"max_delta_step\": null, \"subsample\": 0.8, \"sampling_method\": null, \"colsample_bytree\": null, \"colsample_bylevel\": null, \"colsample_bynode\": null, \"reg_alpha\": null, \"reg_lambda\": null, \"scale_pos_weight\": 10, \"base_score\": null, \"missing\": NaN, \"num_parallel_tree\": null, \"random_state\": null, \"n_jobs\": null, \"monotone_constraints\": null, \"interaction_constraints\": null, \"importance_type\": null, \"gpu_id\": null, \"validate_parameters\": null, \"predictor\": null, \"enable_categorical\": false, \"feature_types\": null, \"max_cat_to_onehot\": null, \"max_cat_threshold\": null, \"eval_metric\": \"aucpr\", \"early_stopping_rounds\": null, \"callbacks\": null, \"kwargs\": {\"eta\": 0.2}, \"classes_\": [0, 1], \"n_classes_\": 2, \"_estimator_type\": \"classifier\"}"},"feature_names":[],"feature_types":[],"gradient_booster":{"model":{"gbtree_model_param":{"num_parallel_tree":"1","num_trees":"5","size_leaf_vector":"0"},"tree_info":[0,0,0,0,0],"trees":[{"base_weights":[-1.3354644E-1,1.24817826E-1,-2.9162538E-1,3.590088E-1,-9.3308315E-2,-2.3279652E-1,-6.069853E-1,4.391173E-1,-8.097518E-2,-2.1126268E-2,-7.0041203E-1,-5.1112914E-1,-1.1942175E-1,-5.12705E-1,-9.4700056E-1],"categories":[],"categories_nodes":[],"categories_segments":[],"categories_sizes":[],"default_left":[1,1,1,1,1,1,1,0,0,0,0,0,0,0,0],"id":0,"left_children":[1,3,5,7,9,11,13,-1,-1,-1,-1,-1,-1,-1,-1],"loss_changes":[8.3050635E2,3.943573E2,2.3390479E2,1.3124933E2,1.751636E2,3.3549652E2,6.307489E1,0E0,0E0,0E0,0E0,0E0,0E0,0E0,0E0],"parents":[2147483647,0,0,1,1,2,2,3,3,4,4,5,5,6,6],"right_children":[2,4,6,8,10,12,14,-1,-1,-1,-1,-1,-1,-1,-1],"split_conditions":[5E-1,5E-1,2.2419888E-1,2.0997977E-1,2.7325168E-1,5.7204492E-2,5.915284E-2,8.7823465E-2,-1.6195036E-2,-4.2252536E-3,-1.400824E-1,-1.0222583E-1,-2.388435E-2,-1.0254101E-1,-1.8940012E-1],"split_indices":[3,4,8,8,8,8,7,0,0,0,0,0,0,0,0],"split_type":[0,0,0,0,0,0,0,0,0,0,0,0,0,0,0],"sum_hessian":[2.033275E4,7.71825E3,1.26145E4,3.72175E3,3.9965E3,1.063275E4,1.98175E3,3.1485E3,5.7325E2,3.57275E3,4.2375E2,3.0765E3,7.55625E3,1.5535E3,4.2825E2],"tree_param":{"num_deleted":"0","num_feature":"9","num_nodes":"15","size_leaf_vector":"0"}},{"base_weights":[-1.16376854E-1,7.657029E-2,-2.3385294E-1,1.637247E-1,-2.923242E-1,-3.275582E-1,-2.1435028E-2,-4.4722998E-1,2.2347568E-1,-1.4654502E-1,-6.9425577E-1,-2.4276246E-1,-4.810706E-1,2.5393996E-2,-5.1949495E-1],"categories":[],"categories_nodes":[],"categories_segments":[],"categories_sizes":[],"default_left":[1,1,1,1,1,1,1,0,0,0,0,0,0,0,0],"id":1,"left_children":[1,3,5,7,9,11,13,-1,-1,-1,-1,-1,-1,-1,-1],"loss_changes":[4.5819766E2,2.4601537E2,2.500827E2,2.2603099E2,8.558595E1,1.13371216E2,8.9740814E1,0E0,0E0,0E0,0E0,0E0,0E0,0E0,0E0],"parents":[2147483647,0,0,1,1,2,2,3,3,4,4,5,5,6,6],"right_children":[2,4,6,8,10,12,14,-1,-1,-1,-1,-1,-1,-1,-1],"split_conditions":[5E-1,2.1138203E-1,4.5454547E-2,5E-1,3.1050336E-1,1.5148765E-1,2.6274663E-1,-8.9446E-2,4.4695135E-2,-2.9309005E-2,-1.3885115E-1,-4.8552494E-2,-9.621412E-2,5.0787996E-3,-1.03898995E-1],"split_indices":[3,8,6,2,8,8,8,0,0,0,0,0,0,0,0],"split_type":[0,0,0,0,0,0,0,0,0,0,0,0,0,0,0],"sum_hessian":[2.0212809E4,7.6494355E3,1.2563373E4,6.18802E3,1.4614155E3,8.71731E3,3.8460637E3,5.5069275E2,5.637327E3,1.0734453E3,3.879702E2,5.6171455E3,3.100164E3,3.5163916E3,3.296722E2],"tree_param":{"num_deleted":"0","num_feature":"9","num_nodes":"15","size_leaf_vector":"0"}},{"base_weights":[-8.829392E-2,6.302142E-2,-1.7974587E-1,2.6235256E-1,-1.2464207E-1,-7.207181E-1,-1.4605287E-1,3.6205655E-1,-4.8092002E-4,-7.22654E-1,-8.009947E-2,-8.614564E-1,-3.9934254E-1,-9.704145E-2,-4.707123E-1],"categories":[],"categories_nodes":[],"categories_segments":[],"categories_sizes":[],"default_left":[1,1,1,1,1,1,1,0,0,0,0,0,0,0,0],"id":2,"left_children":[1,3,5,7,9,11,13,-1,-1,-1,-1,-1,-1,-1,-1],"loss_changes":[2.7967365E2,2.848445E2,2.2949615E2,9.676314E1,1.0442227E2,3.3049347E1,1.8866261E2,0E0,0E0,0E0,0E0,0E0,0E0,0E0,0E0],"parents":[2147483647,0,0,1,1,2,2,3,3,4,4,5,5,6,6],"right_children":[2,4,6,8,10,12,14,-1,-1,-1,-1,-1,-1,-1,-1],"split_conditions":[5E-1,5E-1,2.8033707E-2,1.5565394E-1,5E-1,4.5454547E-2,2.4648595E-1,7.241131E-2,-9.6184005E-5,-1.445308E-1,-1.6019894E-2,-1.7229128E-1,-7.986851E-2,-1.9408291E-2,-9.414246E-2],"split_indices":[3,4,8,8,2,6,8,0,0,0,0,0,0,0,0],"split_type":[0,0,0,0,0,0,0,0,0,0,0,0,0,0,0],"sum_hessian":[2.0208615E4,7.6128286E3,1.2595787E4,3.6914602E3,3.9213684E3,7.373039E2,1.1858482E4,2.675972E3,1.0154882E3,2.707783E2,3.65059E3,5.1158685E2,2.2571703E2,1.03042295E4,1.5542537E3],"tree_param":{"num_deleted":"0","num_feature":"9","num_nodes":"15","size_leaf_vector":"0"}},{"base_weights":[-6.757003E-2,-4.1145924E-1,-3.6902167E-2,-2.4392815E-1,-1.0367559E0,9.265568E-2,-1.17193595E-1,-1.3440147E-1,-7.097633E-1,-9.2840517E-1,-1.7711136E0,1.625968E-1,-1.7206913E-1,-1.9143596E-1,5.1388364E-2],"categories":[],"categories_nodes":[],"categories_segments":[],"categories_sizes":[],"default_left":[1,1,1,1,1,1,1,0,0,0,0,0,0,0,0],"id":3,"left_children":[1,3,5,7,9,11,13,-1,-1,-1,-1,-1,-1,-1,-1],"loss_changes":[2.1307132E2,1.7303775E2,1.9299115E2,6.65374E1,2.6144287E1,1.3146059E2,1.4336584E2,0E0,0E0,0E0,0E0,0E0,0E0,0E0,0E0],"parents":[2147483647,0,0,1,1,2,2,3,3,4,4,5,5,6,6],"right_children":[2,4,6,8,10,12,14,-1,-1,-1,-1,-1,-1,-1,-1],"split_conditions":[5E-1,7.584269E-2,5E-1,3.850711E-2,2.0786516E-1,2.0692809E-1,4.5454547E-2,-2.6880294E-2,-1.4195266E-1,-1.8568103E-1,-3.5422274E-1,3.2519363E-2,-3.4413826E-2,-3.8287193E-2,1.0277673E-2],"split_indices":[2,8,3,7,8,8,6,0,0,0,0,0,0,0,0],"split_type":[0,0,0,0,0,0,0,0,0,0,0,0,0,0,0],"sum_hessian":[2.0203764E4,1.6532207E3,1.8550543E4,1.3049778E3,3.4824292E2,7.0976523E3,1.1452891E4,1.0576036E3,2.4737415E2,3.0544092E2,4.280202E1,5.6146343E3,1.4830182E3,7.9511304E3,3.5017605E3],"tree_param":{"num_deleted":"0","num_feature":"9","num_nodes":"15","size_leaf_vector":"0"}},{"base_weights":[-5.9003048E-2,-1.19667845E-2,-2.4397124E-1,-1.9779707E-1,6.046475E-2,-9.7008836E-1,-1.9313784E-1,-4.2295682E-1,-1.282276E-1,1.4980078E-1,-6.480741E-2,-1.0786723E0,-5.1001745E-1,-8.194881E-3,-3.5249126E-1],"categories":[],"categories_nodes":[],"categories_segments":[],"categories_sizes":[],"default_left":[1,1,1,1,1,1,1,0,0,0,0,0,0,0,0],"id":4,"left_children":[1,3,5,7,9,11,13,-1,-1,-1,-1,-1,-1,-1,-1],"loss_changes":[1.7542798E2,2.1640813E2,1.5070355E2,7.057831E1,1.2948044E2,1.2798859E1,1.1262906E2,0E0,0E0,0E0,0E0,0E0,0E0,0E0,0E0],"parents":[2147483647,0,0,1,1,2,2,3,3,4,4,5,5,6,6],"right_children":[2,4,6,8,10,12,14,-1,-1,-1,-1,-1,-1,-1,-1],"split_conditions":[4.984597E-2,5.7204492E-2,5E-1,2.7753372E-2,1.4863145E-1,9.858709E-2,1.5763596E-1,-8.459137E-2,-2.5645522E-2,2.9960155E-2,-1.2961482E-2,-2.1573447E-1,-1.0200349E-1,-1.6389762E-3,-7.049825E-2],"split_indices":[7,8,2,8,8,7,8,0,0,0,0,0,0,0,0],"split_type":[0,0,0,0,0,0,0,0,0,0,0,0,0,0,0],"sum_hessian":[2.0162979E4,1.6076013E4,4.0869653E3,4.508157E3,1.1567855E4,2.66214E2,3.8207512E3,1.0629308E3,3.4452263E3,6.752332E3,4.8155234E3,2.1429295E2,5.1921055E1,1.7688752E3,2.051876E3],"tree_param":{"num_deleted":"0","num_feature":"9","num_nodes":"15","size_leaf_vector":"0"}}]},"name":"gbtree"},"learner_model_param":{"base_score":"5E-1","boost_from_average":"1","num_class":"0","num_feature":"9","num_target":"1"},"objective":{"name":"binary:logistic","reg_loss_param":{"scale_pos_weight":"10"}}},"version":[1,7,1]}