{"meta": "lr", "classes_": [0, 1], "coef_": [[-1.4393377312802182, -1.6062463322664897, -0.7614505670745055, 0.2118980912271133, -0.29996926365636506, 0.578049048972364, 0.28504789075093284, -1.0470597095980052, -1.496461600011839, -0.6610992455541069, 1.1552134506176015, 0.9842593038030811, -0.5310863587878062, -0.6492218069702683, 0.08802136478210036, -0.35386664220752984, 1.428065352038241, -1.3735112219188284, 0.5142121308851479, 0.3083084448263259, 0.7597665258384174, 0.4317362254531968, 0.0571592636788078, -0.16361299542943478, -1.1558096079071642, 1.1593626439632891, -0.5556995005349905, -0.6467000042304202, -0.25522396533617103, 0.5427066063717171, -0.43426821922755116, 0.7753974912771616, 0.08191712498795728, -0.39230283507719305, -0.1559413050636601, 0.4879438286399806, -0.0397049046323109, -0.17008522839465007, -0.25181557766793894, 0.29777608988960774, 0.10603662502777286, -0.7376764588822656, -0.8161782868516346, 1.5357666545886874, 0.2586461913314168, 0.26977840729631475, -0.11800291233196375, -0.4285097774410298, -0.2146331698104976, -0.35026426001839095, 0.546809338683673, -0.6114234583322322, 0.5618839348501523, 0.03145143233683484, -0.26626806464425384, -0.04064073064034075, 0.046710147718735724, 0.24211055642061238, 0.784026004471682, -0.12724397824833986, -0.47041185711940026, -0.20445826024919853]], "intercept_": [3.910866974647657], "n_iter_": [100], "params": {"C": 0.1, "class_weight": null, "dual": false, "fit_intercept": true, "intercept_scaling": 1, "l1_ratio": null, "max_iter": 100, "multi_class": "auto", "n_jobs": null, "penalty": "l2", "random_state": null, "solver": "lbfgs", "tol": 0.0001, "verbose": 0, "warm_start": false}}