{"meta": "lr", "classes_": [0, 1], "coef_": [[-0.09491860023176131, -0.26056476271812695, 0.1101857859577806, 0.42700979273039497, -0.2692580414275409, 0.14230678724871115, 0.3965467079761812, -0.2492802278240239, -0.3439418524014365, -0.6166410006596188, 0.061194345879349125, -0.18514215285927102, -0.2573840100186766, -0.6962251109836927, -0.0980131995728874, -0.4268603673631246, -0.003308764465566506, 0.2202940618869556, -0.12097834974338005, 1.1269057457766964, 0.5957006560788313, 0.16620441179414067, -0.2873795314371648, -0.054898143569872986, -0.1548254865442756, -0.020444182966429574, -0.17563525694589752, 0.049167838796481074, -0.005622331282512358]], "intercept_": [-7.864207362807085], "n_iter_": [100], "params": {"C": 0.1, "class_weight": null, "dual": false, "fit_intercept": true, "intercept_scaling": 1, "l1_ratio": null, "max_iter": 100, "multi_class": "auto", "n_jobs": null, "penalty": "l2", "random_state": null, "solver": "lbfgs", "tol": 0.0001, "verbose": 0, "warm_start": false}}